<?xml version="1.0"?>
<opencv_storage>
<!-- Created using Computer Vision System Toolbox(tm) for MATLAB(R) -->
<!-- Version 8.5.0.197613 (R2015a) -->
<!-- Compatible with OpenCV 2.4 -->
<cascade>
  <stageType>BOOST</stageType>
  <featureType>HOG</featureType>
  <height>32</height>
  <width>32</width>
  <stageParams>
    <boostType>GAB</boostType>
    <minHitRate>9.9500000476837158e-01</minHitRate>
    <maxFalseAlarm>5.0000000000000000e-01</maxFalseAlarm>
    <weightTrimRate>9.4999999999999996e-01</weightTrimRate>
    <maxDepth>1</maxDepth>
    <maxWeakCount>100</maxWeakCount></stageParams>
  <featureParams>
    <maxCatCount>0</maxCatCount>
    <featSize>36</featSize></featureParams>
  <stageNum>11</stageNum>
  <stages>
    <!-- stage 0 -->
    <_>
      <maxWeakCount>4</maxWeakCount>
      <stageThreshold>-8.5944730043411255e-01</stageThreshold>
      <weakClassifiers>
        <_>
          <internalNodes>
            0 -1 2 1.8557837232947350e-02</internalNodes>
          <leafValues>
            -7.7083331346511841e-01 2.7536231279373169e-01</leafValues></_>
        <_>
          <internalNodes>
            0 -1 37 2.4764286354184151e-02</internalNodes>
          <leafValues>
            3.0906111001968384e-01 -7.9208141565322876e-01</leafValues></_>
        <_>
          <internalNodes>
            0 -1 36 2.0591760054230690e-02</internalNodes>
          <leafValues>
            -5.7249027490615845e-01 4.2651486396789551e-01</leafValues></_>
        <_>
          <internalNodes>
            0 -1 42 3.2365359365940094e-02</internalNodes>
          <leafValues>
            2.7695259451866150e-01 -9.7950053215026855e-01</leafValues></_></weakClassifiers></_>
    <!-- stage 1 -->
    <_>
      <maxWeakCount>5</maxWeakCount>
      <stageThreshold>-8.3766108751296997e-01</stageThreshold>
      <weakClassifiers>
        <_>
          <internalNodes>
            0 -1 19 3.1506918370723724e-02</internalNodes>
          <leafValues>
            7.2164945304393768e-02 -9.1176468133926392e-01</leafValues></_>
        <_>
          <internalNodes>
            0 -1 8 1.0310286656022072e-02</internalNodes>
          <leafValues>
            -7.8460347652435303e-01 2.4315233528614044e-01</leafValues></_>
        <_>
          <internalNodes>
            0 -1 25 2.9705408960580826e-02</internalNodes>
          <leafValues>
            3.1441363692283630e-01 -7.2544002532958984e-01</leafValues></_>
        <_>
          <internalNodes>
            0 -1 5 1.0196870192885399e-02</internalNodes>
          <leafValues>
            -7.2051167488098145e-01 2.9769703745841980e-01</leafValues></_>
        <_>
          <internalNodes>
            0 -1 54 1.9078750163316727e-02</internalNodes>
          <leafValues>
            3.0252042412757874e-01 -7.2934448719024658e-01</leafValues></_></weakClassifiers></_>
    <!-- stage 2 -->
    <_>
      <maxWeakCount>4</maxWeakCount>
      <stageThreshold>-1.1718364953994751e+00</stageThreshold>
      <weakClassifiers>
        <_>
          <internalNodes>
            0 -1 31 1.7922095954418182e-02</internalNodes>
          <leafValues>
            -9.2441862821578979e-01 3.1012657284736633e-01</leafValues></_>
        <_>
          <internalNodes>
            0 -1 47 1.2123364955186844e-02</internalNodes>
          <leafValues>
            -7.9280644655227661e-01 3.8436394929885864e-01</leafValues></_>
        <_>
          <internalNodes>
            0 -1 26 1.0234861634671688e-02</internalNodes>
          <leafValues>
            -7.3676615953445435e-01 2.3474436998367310e-01</leafValues></_>
        <_>
          <internalNodes>
            0 -1 56 6.4494130201637745e-03</internalNodes>
          <leafValues>
            -7.2530758380889893e-01 3.1064414978027344e-01</leafValues></_></weakClassifiers></_>
    <!-- stage 3 -->
    <_>
      <maxWeakCount>5</maxWeakCount>
      <stageThreshold>-1.5277522802352905e+00</stageThreshold>
      <weakClassifiers>
        <_>
          <internalNodes>
            0 -1 46 1.3593814335763454e-02</internalNodes>
          <leafValues>
            -7.6243096590042114e-01 1.8791946768760681e-01</leafValues></_>
        <_>
          <internalNodes>
            0 -1 9 8.9520737528800964e-03</internalNodes>
          <leafValues>
            -7.5249594449996948e-01 2.6070675253868103e-01</leafValues></_>
        <_>
          <internalNodes>
            0 -1 55 1.9551038742065430e-02</internalNodes>
          <leafValues>
            -7.5872075557708740e-01 2.3572912812232971e-01</leafValues></_>
        <_>
          <internalNodes>
            0 -1 31 1.8679376691579819e-02</internalNodes>
          <leafValues>
            -7.8420644998550415e-01 2.7413150668144226e-01</leafValues></_>
        <_>
          <internalNodes>
            0 -1 50 1.3766309246420860e-02</internalNodes>
          <leafValues>
            -5.4143881797790527e-01 3.6751943826675415e-01</leafValues></_></weakClassifiers></_>
    <!-- stage 4 -->
    <_>
      <maxWeakCount>7</maxWeakCount>
      <stageThreshold>-1.2414122819900513e+00</stageThreshold>
      <weakClassifiers>
        <_>
          <internalNodes>
            0 -1 36 1.6544189304113388e-02</internalNodes>
          <leafValues>
            -8.1045752763748169e-01 7.9096041619777679e-02</leafValues></_>
        <_>
          <internalNodes>
            0 -1 33 9.7204819321632385e-03</internalNodes>
          <leafValues>
            -8.1988888978958130e-01 2.2812870144844055e-01</leafValues></_>
        <_>
          <internalNodes>
            0 -1 49 2.6723641902208328e-02</internalNodes>
          <leafValues>
            -5.4109013080596924e-01 3.3683234453201294e-01</leafValues></_>
        <_>
          <internalNodes>
            0 -1 43 6.9404788315296173e-02</internalNodes>
          <leafValues>
            -2.0572921633720398e-01 8.8844829797744751e-01</leafValues></_>
        <_>
          <internalNodes>
            0 -1 21 7.2634115815162659e-02</internalNodes>
          <leafValues>
            -2.9060077667236328e-01 6.8571043014526367e-01</leafValues></_>
        <_>
          <internalNodes>
            0 -1 15 4.8473342321813107e-03</internalNodes>
          <leafValues>
            -6.2738478183746338e-01 3.6374878883361816e-01</leafValues></_>
        <_>
          <internalNodes>
            0 -1 29 2.9812220018357038e-03</internalNodes>
          <leafValues>
            -8.2594424486160278e-01 1.8468296527862549e-01</leafValues></_></weakClassifiers></_>
    <!-- stage 5 -->
    <_>
      <maxWeakCount>6</maxWeakCount>
      <stageThreshold>-9.2411100864410400e-01</stageThreshold>
      <weakClassifiers>
        <_>
          <internalNodes>
            0 -1 51 2.5323651731014252e-02</internalNodes>
          <leafValues>
            -6.5566039085388184e-01 2.4576270580291748e-01</leafValues></_>
        <_>
          <internalNodes>
            0 -1 1 9.7535707056522369e-02</internalNodes>
          <leafValues>
            -2.5763386487960815e-01 8.7864309549331665e-01</leafValues></_>
        <_>
          <internalNodes>
            0 -1 22 5.5899783968925476e-02</internalNodes>
          <leafValues>
            -3.8801917433738708e-01 6.1122912168502808e-01</leafValues></_>
        <_>
          <internalNodes>
            0 -1 4 6.1044275760650635e-02</internalNodes>
          <leafValues>
            -2.0818254351615906e-01 7.9187756776809692e-01</leafValues></_>
        <_>
          <internalNodes>
            0 -1 23 3.3448912203311920e-02</internalNodes>
          <leafValues>
            2.4565829336643219e-01 -6.4317595958709717e-01</leafValues></_>
        <_>
          <internalNodes>
            0 -1 47 1.1604554951190948e-02</internalNodes>
          <leafValues>
            -6.0678917169570923e-01 3.3972668647766113e-01</leafValues></_></weakClassifiers></_>
    <!-- stage 6 -->
    <_>
      <maxWeakCount>4</maxWeakCount>
      <stageThreshold>-1.1577781438827515e+00</stageThreshold>
      <weakClassifiers>
        <_>
          <internalNodes>
            0 -1 52 6.1901453882455826e-03</internalNodes>
          <leafValues>
            -8.6666667461395264e-01 1.1111111193895340e-01</leafValues></_>
        <_>
          <internalNodes>
            0 -1 6 6.7116841673851013e-03</internalNodes>
          <leafValues>
            -6.7212164402008057e-01 2.7392494678497314e-01</leafValues></_>
        <_>
          <internalNodes>
            0 -1 24 2.7190767228603363e-02</internalNodes>
          <leafValues>
            2.2946527600288391e-01 -7.8050458431243896e-01</leafValues></_>
        <_>
          <internalNodes>
            0 -1 53 9.5028653740882874e-03</internalNodes>
          <leafValues>
            -9.3255758285522461e-01 1.8373699486255646e-01</leafValues></_></weakClassifiers></_>
    <!-- stage 7 -->
    <_>
      <maxWeakCount>7</maxWeakCount>
      <stageThreshold>-1.4619402885437012e+00</stageThreshold>
      <weakClassifiers>
        <_>
          <internalNodes>
            0 -1 36 2.0595137029886246e-02</internalNodes>
          <leafValues>
            -7.3509931564331055e-01 8.4507046267390251e-03</leafValues></_>
        <_>
          <internalNodes>
            0 -1 38 5.5809523910284042e-03</internalNodes>
          <leafValues>
            -9.8266047239303589e-01 1.5611636638641357e-01</leafValues></_>
        <_>
          <internalNodes>
            0 -1 12 1.8150810152292252e-02</internalNodes>
          <leafValues>
            2.5168821215629578e-01 -6.2065184116363525e-01</leafValues></_>
        <_>
          <internalNodes>
            0 -1 41 2.3999433964490891e-02</internalNodes>
          <leafValues>
            -4.9470382928848267e-01 3.3108073472976685e-01</leafValues></_>
        <_>
          <internalNodes>
            0 -1 6 7.3863351717591286e-03</internalNodes>
          <leafValues>
            -5.3189224004745483e-01 2.4082401394844055e-01</leafValues></_>
        <_>
          <internalNodes>
            0 -1 32 2.8411941602826118e-02</internalNodes>
          <leafValues>
            1.6380353271961212e-01 -8.2995277643203735e-01</leafValues></_>
        <_>
          <internalNodes>
            0 -1 20 1.0577955842018127e-01</internalNodes>
          <leafValues>
            -2.2529748082160950e-01 6.8528586626052856e-01</leafValues></_></weakClassifiers></_>
    <!-- stage 8 -->
    <_>
      <maxWeakCount>9</maxWeakCount>
      <stageThreshold>-1.1293079853057861e+00</stageThreshold>
      <weakClassifiers>
        <_>
          <internalNodes>
            0 -1 40 1.2696281075477600e-02</internalNodes>
          <leafValues>
            -7.8758947551250458e-02 -7.8723406791687012e-01</leafValues></_>
        <_>
          <internalNodes>
            0 -1 16 3.5214968025684357e-02</internalNodes>
          <leafValues>
            9.0484358370304108e-02 -8.2637476921081543e-01</leafValues></_>
        <_>
          <internalNodes>
            0 -1 3 1.3155878521502018e-02</internalNodes>
          <leafValues>
            -4.7999247908592224e-01 3.5780867934226990e-01</leafValues></_>
        <_>
          <internalNodes>
            0 -1 0 1.0316308587789536e-02</internalNodes>
          <leafValues>
            -7.1876877546310425e-01 1.2439532577991486e-01</leafValues></_>
        <_>
          <internalNodes>
            0 -1 14 2.0899828523397446e-02</internalNodes>
          <leafValues>
            2.3259288072586060e-01 -5.0613754987716675e-01</leafValues></_>
        <_>
          <internalNodes>
            0 -1 52 5.3990455344319344e-03</internalNodes>
          <leafValues>
            -6.5591239929199219e-01 1.6334535181522369e-01</leafValues></_>
        <_>
          <internalNodes>
            0 -1 39 4.3022558093070984e-02</internalNodes>
          <leafValues>
            -2.5635701417922974e-01 5.9066408872604370e-01</leafValues></_>
        <_>
          <internalNodes>
            0 -1 11 1.4390632510185242e-02</internalNodes>
          <leafValues>
            -2.8680881857872009e-01 4.1807371377944946e-01</leafValues></_>
        <_>
          <internalNodes>
            0 -1 45 3.5963553935289383e-02</internalNodes>
          <leafValues>
            1.0411430150270462e-01 -9.4741678237915039e-01</leafValues></_></weakClassifiers></_>
    <!-- stage 9 -->
    <_>
      <maxWeakCount>8</maxWeakCount>
      <stageThreshold>-1.0971108675003052e+00</stageThreshold>
      <weakClassifiers>
        <_>
          <internalNodes>
            0 -1 20 7.9483434557914734e-02</internalNodes>
          <leafValues>
            -5.1879698038101196e-01 4.9579831957817078e-01</leafValues></_>
        <_>
          <internalNodes>
            0 -1 35 7.4503980576992035e-02</internalNodes>
          <leafValues>
            -3.0080854892730713e-01 6.2887126207351685e-01</leafValues></_>
        <_>
          <internalNodes>
            0 -1 13 3.1563498079776764e-02</internalNodes>
          <leafValues>
            3.0957794189453125e-01 -5.0492030382156372e-01</leafValues></_>
        <_>
          <internalNodes>
            0 -1 44 2.6497183367609978e-02</internalNodes>
          <leafValues>
            2.4271385371685028e-01 -5.8977621793746948e-01</leafValues></_>
        <_>
          <internalNodes>
            0 -1 30 1.6970548778772354e-02</internalNodes>
          <leafValues>
            -5.5054962635040283e-01 3.1894692778587341e-01</leafValues></_>
        <_>
          <internalNodes>
            0 -1 18 2.3630730807781219e-02</internalNodes>
          <leafValues>
            2.2268266975879669e-01 -7.0108735561370850e-01</leafValues></_>
        <_>
          <internalNodes>
            0 -1 57 1.3861682265996933e-02</internalNodes>
          <leafValues>
            -6.1541056632995605e-01 1.9058930873870850e-01</leafValues></_>
        <_>
          <internalNodes>
            0 -1 17 8.4193199872970581e-03</internalNodes>
          <leafValues>
            -7.8149026632308960e-01 1.7625218629837036e-01</leafValues></_></weakClassifiers></_>
    <!-- stage 10 -->
    <_>
      <maxWeakCount>7</maxWeakCount>
      <stageThreshold>-1.4324423074722290e+00</stageThreshold>
      <weakClassifiers>
        <_>
          <internalNodes>
            0 -1 34 1.2081076204776764e-01</internalNodes>
          <leafValues>
            -4.8951047658920288e-01 8.4210526943206787e-01</leafValues></_>
        <_>
          <internalNodes>
            0 -1 26 9.1909915208816528e-03</internalNodes>
          <leafValues>
            -6.2899959087371826e-01 1.9947998225688934e-01</leafValues></_>
        <_>
          <internalNodes>
            0 -1 28 4.0177740156650543e-03</internalNodes>
          <leafValues>
            -7.1891075372695923e-01 1.5740385651588440e-01</leafValues></_>
        <_>
          <internalNodes>
            0 -1 48 5.4680607281625271e-03</internalNodes>
          <leafValues>
            -6.5186399221420288e-01 1.8468832969665527e-01</leafValues></_>
        <_>
          <internalNodes>
            0 -1 10 1.5994770452380180e-02</internalNodes>
          <leafValues>
            2.1191243827342987e-01 -5.6377214193344116e-01</leafValues></_>
        <_>
          <internalNodes>
            0 -1 27 4.6386227011680603e-02</internalNodes>
          <leafValues>
            -3.2814693450927734e-01 4.1168847680091858e-01</leafValues></_>
        <_>
          <internalNodes>
            0 -1 7 2.0257914438843727e-02</internalNodes>
          <leafValues>
            -5.4041421413421631e-01 2.3589462041854858e-01</leafValues></_></weakClassifiers></_></stages>
  <features>
    <_>
      <rect>
        0 0 8 8 21</rect></_>
    <_>
      <rect>
        0 0 8 8 32</rect></_>
    <_>
      <rect>
        0 12 8 8 6</rect></_>
    <_>
      <rect>
        0 12 8 8 7</rect></_>
    <_>
      <rect>
        0 16 8 8 15</rect></_>
    <_>
      <rect>
        0 16 8 8 16</rect></_>
    <_>
      <rect>
        0 16 8 8 21</rect></_>
    <_>
      <rect>
        0 16 8 8 22</rect></_>
    <_>
      <rect>
        0 16 8 8 23</rect></_>
    <_>
      <rect>
        4 0 8 8 12</rect></_>
    <_>
      <rect>
        4 0 8 8 17</rect></_>
    <_>
      <rect>
        4 0 8 8 27</rect></_>
    <_>
      <rect>
        4 4 8 8 19</rect></_>
    <_>
      <rect>
        4 8 8 8 22</rect></_>
    <_>
      <rect>
        4 8 8 8 31</rect></_>
    <_>
      <rect>
        4 8 8 8 34</rect></_>
    <_>
      <rect>
        4 12 8 8 26</rect></_>
    <_>
      <rect>
        4 16 8 8 5</rect></_>
    <_>
      <rect>
        8 4 8 8 21</rect></_>
    <_>
      <rect>
        8 4 8 8 31</rect></_>
    <_>
      <rect>
        8 8 8 8 10</rect></_>
    <_>
      <rect>
        8 8 8 8 11</rect></_>
    <_>
      <rect>
        8 12 8 8 10</rect></_>
    <_>
      <rect>
        8 12 8 8 13</rect></_>
    <_>
      <rect>
        8 12 8 8 31</rect></_>
    <_>
      <rect>
        12 12 8 8 22</rect></_>
    <_>
      <rect>
        16 8 8 8 12</rect></_>
    <_>
      <rect>
        16 12 8 8 28</rect></_>
    <_>
      <rect>
        16 16 8 8 9</rect></_>
    <_>
      <rect>
        0 0 8 16 0</rect></_>
    <_>
      <rect>
        0 0 8 16 2</rect></_>
    <_>
      <rect>
        0 0 8 16 3</rect></_>
    <_>
      <rect>
        0 0 8 16 19</rect></_>
    <_>
      <rect>
        0 0 8 16 23</rect></_>
    <_>
      <rect>
        4 0 8 16 11</rect></_>
    <_>
      <rect>
        8 0 8 16 5</rect></_>
    <_>
      <rect>
        16 0 8 16 14</rect></_>
    <_>
      <rect>
        16 0 8 16 22</rect></_>
    <_>
      <rect>
        16 0 8 16 29</rect></_>
    <_>
      <rect>
        0 4 16 8 5</rect></_>
    <_>
      <rect>
        0 4 16 8 8</rect></_>
    <_>
      <rect>
        0 4 16 8 12</rect></_>
    <_>
      <rect>
        0 4 16 8 35</rect></_>
    <_>
      <rect>
        0 8 16 8 5</rect></_>
    <_>
      <rect>
        0 8 16 8 31</rect></_>
    <_>
      <rect>
        0 8 16 8 35</rect></_>
    <_>
      <rect>
        0 12 16 8 7</rect></_>
    <_>
      <rect>
        0 12 16 8 23</rect></_>
    <_>
      <rect>
        0 16 16 8 2</rect></_>
    <_>
      <rect>
        0 16 16 8 10</rect></_>
    <_>
      <rect>
        0 16 16 8 25</rect></_>
    <_>
      <rect>
        0 16 16 8 27</rect></_>
    <_>
      <rect>
        0 16 16 8 30</rect></_>
    <_>
      <rect>
        0 0 16 16 3</rect></_>
    <_>
      <rect>
        0 0 16 16 8</rect></_>
    <_>
      <rect>
        0 0 16 16 13</rect></_>
    <_>
      <rect>
        0 0 16 16 16</rect></_>
    <_>
      <rect>
        0 0 16 16 28</rect></_></features></cascade>
</opencv_storage>
